18 200
</s> -0.002500 -0.000583 0.000663 -0.000704 -0.001115 -0.001334 0.000172 0.002189 0.002417 -0.000553 -0.000752 -0.000303 0.001504 -0.000248 0.001367 0.002261 0.000505 -0.001365 -0.001823 0.000070 0.001646 0.000412 -0.002166 -0.001397 -0.002213 0.000538 -0.001917 0.002170 0.000765 0.001360 0.000089 -0.000492 -0.001336 0.001629 -0.000027 -0.001340 -0.001704 0.000855 0.000030 -0.000024 0.002176 -0.000433 0.000034 -0.001928 0.001572 -0.000400 0.000313 -0.000545 -0.001950 -0.000353 -0.000552 -0.001878 -0.000175 -0.000471 -0.001106 -0.000420 0.000512 0.000382 -0.000091 0.001623 -0.002387 -0.000314 -0.002335 -0.001929 0.001889 0.000631 0.002316 0.000776 -0.000451 -0.000615 0.001699 -0.001105 -0.000141 0.001483 -0.000828 0.000604 0.001859 -0.001879 -0.000199 -0.001510 -0.001673 -0.000141 -0.000471 0.002129 0.000220 0.001426 -0.001194 0.000220 0.001355 0.001016 -0.000613 0.001391 -0.000457 -0.000428 -0.000994 0.002321 -0.000459 0.001539 -0.000837 0.000255 0.001414 -0.000159 0.000735 -0.001266 -0.002016 0.000627 0.001428 -0.001952 -0.001577 0.002360 0.000888 -0.001450 0.001538 0.000225 -0.001246 0.000067 0.002232 -0.000206 0.001645 0.001271 0.002405 0.000757 0.000168 -0.001541 0.001833 -0.000333 0.001862 0.001993 -0.000598 -0.002056 0.000394 0.000806 -0.000434 -0.001861 -0.001850 -0.001946 0.001914 0.001100 0.002178 0.000811 0.001363 -0.000329 -0.002375 0.000023 -0.000628 -0.002259 -0.002338 -0.002392 -0.001908 -0.002440 0.002180 0.002294 0.002360 0.002043 0.002474 -0.000589 0.000474 0.000923 -0.000146 0.000097 -0.002481 0.000032 -0.000946 -0.000345 0.002441 0.002063 0.000244 -0.000582 -0.001392 0.002043 -0.000909 0.000197 0.002394 -0.001834 -0.001206 -0.000339 -0.000088 -0.000176 -0.000643 -0.001977 -0.001945 0.001198 -0.000393 0.001610 -0.000332 -0.001342 0.001639 0.001847 0.000741 0.000573 0.001393 0.000018 0.002123 0.000356 -0.001367 0.001941 -0.000814 0.001468 0.002429 -0.002268 
 -0.211069 -0.259426 0.150918 -0.200262 0.243030 -0.122779 0.000814 -0.163799 -0.051966 -0.176718 -0.026833 0.201766 0.120301 0.295036 0.136420 0.269135 -0.186976 -0.117012 0.019285 0.135509 -0.287968 0.146595 0.028749 -0.257625 0.290266 -0.223340 -0.170894 -0.152761 -0.199087 -0.264205 -0.235927 -0.154680 0.179652 0.199338 -0.147471 0.022235 0.256299 -0.093306 0.200436 0.043862 0.158351 0.056523 -0.202990 0.277904 0.241424 0.048340 0.187210 0.279991 -0.250647 -0.209351 -0.096439 0.077710 -0.070668 -0.265318 0.126838 0.205211 0.077483 -0.265736 -0.139542 0.004662 -0.237046 0.119146 0.254067 0.177685 -0.217565 0.147244 -0.138492 -0.266882 0.259880 -0.224893 -0.028661 -0.055450 -0.006141 -0.179704 0.102233 -0.093118 0.019620 0.203421 -0.044812 0.097733 -0.236084 0.150119 0.012362 -0.058723 -0.000484 -0.161630 -0.070066 0.199961 0.128267 -0.056871 0.029673 0.239114 0.032229 0.093469 0.048200 -0.134421 -0.278747 0.113037 0.060933 -0.127141 -0.293863 -0.014342 0.143251 0.207495 -0.182333 -0.218698 0.273384 0.135467 -0.015386 -0.160179 -0.209739 -0.275325 -0.026033 0.047798 0.276393 -0.080024 -0.071517 0.099688 0.163523 -0.112956 0.051800 -0.095386 -0.283670 -0.190183 -0.129068 0.008395 -0.179858 -0.193999 0.286268 0.049450 0.089595 -0.042438 0.248684 0.032908 0.007002 -0.254371 -0.161358 0.292711 0.158893 0.040398 -0.284927 -0.100018 -0.270437 -0.080265 0.134295 -0.013035 0.176990 -0.090598 -0.203234 0.219552 0.228395 -0.070753 -0.013444 -0.189836 -0.007099 -0.196397 -0.027063 -0.278178 -0.152521 0.268743 0.225061 0.114172 0.078956 0.285157 0.160123 0.059214 -0.003158 -0.159503 0.066846 -0.103654 0.151414 -0.118221 0.158039 -0.000354 0.217101 -0.006635 -0.245061 0.109919 0.254612 -0.082755 0.044701 -0.139591 -0.292724 -0.045735 -0.261008 0.282799 -0.267229 0.008042 0.178437 -0.119051 0.042189 0.168764 0.265547 0.160800 -0.084013 0.032486 0.052066 -0.097789 0.216796 -0.168000 
s -0.143955 -0.169377 0.101191 -0.131057 0.169408 -0.081762 0.003183 -0.110056 -0.040267 -0.125674 -0.016613 0.136877 0.083778 0.197572 0.092484 0.184695 -0.131841 -0.075650 0.011957 0.097155 -0.204848 0.108244 0.019793 -0.190606 0.203885 -0.155167 -0.121868 -0.106690 -0.137726 -0.183983 -0.162462 -0.110942 0.123327 0.143180 -0.100020 0.015735 0.187783 -0.068356 0.143871 0.031457 0.113288 0.046647 -0.163387 0.200146 0.174942 0.036682 0.132874 0.199822 -0.174675 -0.148908 -0.066931 0.052488 -0.053008 -0.190358 0.091287 0.147703 0.055589 -0.187456 -0.096821 0.004235 -0.170378 0.086052 0.177486 0.126808 -0.154848 0.101448 -0.113734 -0.186930 0.181509 -0.159032 -0.019591 -0.038399 -0.004403 -0.126656 0.069973 -0.068864 0.016483 0.143335 -0.029584 0.068540 -0.165715 0.107762 0.008544 -0.044820 -0.001839 -0.117288 -0.050529 0.139920 0.089334 -0.042230 0.024011 0.167323 0.025186 0.066622 0.034843 -0.104669 -0.196708 0.080192 0.045515 -0.088198 -0.211027 -0.011513 0.103665 0.135905 -0.129754 -0.152975 0.195408 0.089285 -0.008892 -0.115834 -0.150583 -0.194700 -0.016300 0.031717 0.192522 -0.054993 -0.050447 0.069359 0.114167 -0.084196 0.039322 -0.069253 -0.202322 -0.134424 -0.088977 0.004867 -0.127171 -0.138645 0.199168 0.037354 0.063326 -0.029149 0.179172 0.023502 0.003395 -0.183430 -0.113437 0.205680 0.110255 0.031008 -0.203514 -0.071670 -0.194367 -0.055802 0.105098 -0.006844 0.132603 -0.064509 -0.140757 0.154441 0.156066 -0.051856 -0.007455 -0.129892 -0.002694 -0.141398 -0.017845 -0.196765 -0.106465 0.188046 0.156842 0.080470 0.055626 0.204704 0.113672 0.044616 -0.004956 -0.116073 0.045785 -0.072873 0.109744 -0.083400 0.110758 -0.002276 0.151970 -0.007613 -0.176378 0.080409 0.171391 -0.061073 0.030303 -0.092632 -0.201548 -0.033417 -0.183557 0.200823 -0.186296 0.005675 0.127670 -0.083058 0.031711 0.117026 0.190179 0.129129 -0.060628 0.023900 0.037487 -0.071240 0.156113 -0.119714 
t -0.113839 -0.131401 0.076806 -0.100580 0.132131 -0.063415 0.002059 -0.085963 -0.029772 -0.094455 -0.011898 0.107530 0.062109 0.155403 0.072533 0.143526 -0.105945 -0.061890 0.010453 0.077368 -0.158384 0.083614 0.014452 -0.149133 0.156587 -0.119061 -0.093570 -0.081481 -0.110324 -0.141181 -0.128882 -0.085582 0.093824 0.110069 -0.079656 0.012156 0.143573 -0.053609 0.111345 0.023935 0.088340 0.037464 -0.125920 0.154858 0.137164 0.029661 0.103849 0.156547 -0.138637 -0.114361 -0.054766 0.042459 -0.041825 -0.147904 0.072714 0.112651 0.043125 -0.148520 -0.078686 0.002799 -0.132609 0.067416 0.138897 0.095861 -0.118125 0.081951 -0.086368 -0.146299 0.143691 -0.125816 -0.014872 -0.033251 -0.004501 -0.099081 0.057958 -0.053702 0.008881 0.113988 -0.026018 0.052965 -0.128721 0.083181 0.004454 -0.035024 -0.001891 -0.091343 -0.037411 0.109438 0.073476 -0.029691 0.018293 0.134853 0.018943 0.049737 0.025220 -0.080424 -0.155662 0.060756 0.037088 -0.069371 -0.165483 -0.007782 0.078527 0.106635 -0.099226 -0.120051 0.152964 0.071157 -0.008946 -0.090445 -0.114730 -0.155228 -0.015389 0.027219 0.151246 -0.044928 -0.041504 0.055848 0.092453 -0.065947 0.028068 -0.054216 -0.157279 -0.103621 -0.071959 0.004625 -0.098736 -0.109227 0.152415 0.028051 0.048525 -0.024600 0.139377 0.019064 0.002510 -0.143479 -0.090986 0.162644 0.089831 0.021678 -0.158471 -0.053063 -0.148066 -0.044131 0.082157 -0.006198 0.101711 -0.052218 -0.113405 0.123753 0.125469 -0.041789 -0.005700 -0.102973 -0.001322 -0.110768 -0.013431 -0.155480 -0.085818 0.147198 0.121525 0.063291 0.045204 0.157687 0.086592 0.032494 -0.001946 -0.089538 0.037096 -0.054827 0.083536 -0.063539 0.089441 -0.000927 0.121586 -0.006565 -0.133959 0.059637 0.134640 -0.045155 0.026243 -0.072920 -0.157960 -0.026032 -0.143291 0.158697 -0.145650 0.007152 0.099791 -0.066614 0.025982 0.093466 0.148182 0.097183 -0.046596 0.019760 0.030874 -0.052245 0.118624 -0.090935 
v -0.089881 -0.104137 0.060080 -0.078933 0.107113 -0.049821 0.000957 -0.065340 -0.025140 -0.076708 -0.010192 0.087010 0.053102 0.122216 0.058562 0.115431 -0.080155 -0.046104 0.007948 0.059463 -0.125722 0.064314 0.011878 -0.115625 0.127663 -0.096550 -0.076924 -0.065589 -0.088335 -0.113936 -0.101805 -0.067737 0.074896 0.089235 -0.064083 0.012614 0.112562 -0.038997 0.088851 0.017372 0.070810 0.028992 -0.100656 0.121803 0.108400 0.021135 0.081834 0.125271 -0.110577 -0.091322 -0.043004 0.033091 -0.033017 -0.116075 0.058062 0.090187 0.032981 -0.117011 -0.059021 0.002362 -0.103029 0.053972 0.110653 0.079005 -0.095909 0.062465 -0.071352 -0.117480 0.113140 -0.097716 -0.010849 -0.025493 -0.001022 -0.079863 0.046425 -0.040814 0.008616 0.090462 -0.019998 0.040866 -0.099610 0.067160 0.004565 -0.026209 -0.000861 -0.071608 -0.028011 0.090308 0.054596 -0.026530 0.015083 0.102536 0.014643 0.040709 0.021378 -0.062794 -0.121290 0.047723 0.030012 -0.052775 -0.127081 -0.004073 0.064383 0.083184 -0.077542 -0.096560 0.118421 0.056619 -0.006950 -0.069049 -0.094862 -0.122205 -0.011826 0.020795 0.117293 -0.034462 -0.031736 0.043147 0.072478 -0.050368 0.024626 -0.044649 -0.122122 -0.083667 -0.054955 0.005946 -0.077411 -0.086016 0.120119 0.022320 0.041099 -0.018736 0.110878 0.014753 0.001665 -0.113877 -0.072883 0.128929 0.069671 0.015692 -0.123020 -0.044578 -0.120490 -0.035510 0.062584 -0.007603 0.081148 -0.039012 -0.089104 0.095108 0.097698 -0.030980 -0.007508 -0.080449 -0.001004 -0.088113 -0.012356 -0.120513 -0.068024 0.117639 0.096545 0.046850 0.034668 0.126815 0.071185 0.024741 -0.000291 -0.070750 0.027450 -0.042784 0.064305 -0.052389 0.067838 0.000187 0.093158 -0.003034 -0.109150 0.049021 0.103490 -0.035386 0.019749 -0.057590 -0.125998 -0.018932 -0.111916 0.124579 -0.118233 0.002051 0.077483 -0.050609 0.021637 0.072855 0.117587 0.078831 -0.038690 0.013201 0.021471 -0.042105 0.093553 -0.072334 
r -0.090565 -0.101513 0.063177 -0.082581 0.101752 -0.048114 0.002675 -0.065941 -0.023778 -0.077488 -0.012301 0.086083 0.050729 0.122086 0.058085 0.112395 -0.083053 -0.046890 0.007469 0.061372 -0.122754 0.066232 0.013053 -0.116795 0.122394 -0.093419 -0.075402 -0.063797 -0.084486 -0.113551 -0.101478 -0.068072 0.076233 0.087775 -0.063423 0.012330 0.113151 -0.042144 0.087151 0.018995 0.070413 0.029425 -0.101410 0.123090 0.104585 0.020252 0.082450 0.121450 -0.105987 -0.092058 -0.040735 0.031655 -0.030878 -0.114508 0.056664 0.089405 0.035121 -0.117379 -0.060922 0.000277 -0.102507 0.050697 0.111293 0.075138 -0.095119 0.063736 -0.066934 -0.118310 0.114475 -0.097088 -0.012535 -0.025861 -0.004679 -0.079417 0.043251 -0.041352 0.006730 0.091239 -0.017918 0.041276 -0.102433 0.065932 0.006423 -0.023897 0.000220 -0.072010 -0.028912 0.088402 0.058715 -0.024624 0.014839 0.103451 0.011634 0.040063 0.021152 -0.063320 -0.118302 0.047102 0.029047 -0.054657 -0.129571 -0.004394 0.060891 0.086319 -0.076670 -0.096154 0.117635 0.053922 -0.004524 -0.068358 -0.091187 -0.118728 -0.013202 0.019659 0.116564 -0.032174 -0.032373 0.045035 0.068898 -0.048396 0.021473 -0.039521 -0.120971 -0.083967 -0.054893 0.004019 -0.076956 -0.085057 0.118996 0.024268 0.040569 -0.018012 0.111850 0.012931 0.000726 -0.112652 -0.068286 0.129263 0.068640 0.016004 -0.124660 -0.043096 -0.117618 -0.037118 0.065268 -0.004059 0.079764 -0.040985 -0.086658 0.097802 0.098626 -0.033968 -0.007961 -0.081311 -0.002909 -0.086037 -0.013122 -0.122674 -0.065508 0.114746 0.098731 0.047703 0.034098 0.124975 0.070585 0.026595 -0.001226 -0.068201 0.028394 -0.044313 0.063308 -0.052085 0.071336 0.001102 0.094060 -0.001420 -0.107593 0.046254 0.107275 -0.034663 0.021178 -0.058360 -0.125804 -0.022235 -0.110822 0.124498 -0.115142 0.005295 0.078127 -0.051704 0.021314 0.073854 0.114275 0.080315 -0.037516 0.016040 0.023754 -0.044456 0.096155 -0.075369 
m -0.089791 -0.100060 0.060762 -0.076913 0.103200 -0.049252 0.001321 -0.067145 -0.023409 -0.072025 -0.009906 0.083868 0.049502 0.121608 0.054663 0.112805 -0.081678 -0.045878 0.006505 0.057042 -0.123703 0.062078 0.013042 -0.115800 0.121851 -0.091029 -0.071804 -0.062947 -0.085507 -0.110857 -0.097679 -0.067638 0.073780 0.083182 -0.061248 0.011532 0.109950 -0.040540 0.085323 0.019818 0.067664 0.027348 -0.096277 0.117612 0.104470 0.022597 0.080842 0.121622 -0.104673 -0.088240 -0.039028 0.034091 -0.028936 -0.116117 0.055894 0.089169 0.033404 -0.115634 -0.061501 0.004118 -0.100789 0.049635 0.106642 0.077644 -0.094788 0.063821 -0.069146 -0.115829 0.112087 -0.095617 -0.013722 -0.022265 -0.003305 -0.076102 0.041508 -0.039776 0.011000 0.086975 -0.017267 0.039777 -0.101712 0.066933 0.003836 -0.027509 -0.001405 -0.070530 -0.030112 0.087339 0.053989 -0.025061 0.012955 0.100337 0.012734 0.037933 0.021944 -0.062344 -0.117533 0.046819 0.028150 -0.054548 -0.124392 -0.003711 0.059448 0.080739 -0.076037 -0.093393 0.114486 0.055699 -0.004789 -0.069132 -0.087717 -0.118486 -0.010848 0.020513 0.115967 -0.035445 -0.029809 0.042265 0.070255 -0.050735 0.022146 -0.042416 -0.120623 -0.083150 -0.053205 0.000940 -0.078009 -0.080971 0.120243 0.021698 0.035882 -0.016594 0.106605 0.015248 0.002725 -0.107393 -0.068124 0.122602 0.067214 0.017320 -0.123641 -0.041842 -0.113424 -0.032628 0.063280 -0.005554 0.079292 -0.039953 -0.085204 0.092484 0.093228 -0.031230 -0.006160 -0.079888 -0.004960 -0.085874 -0.009250 -0.119753 -0.066458 0.112216 0.094926 0.046411 0.034514 0.121978 0.066843 0.025585 0.000446 -0.066214 0.026711 -0.043274 0.066439 -0.052066 0.068401 -0.000825 0.093781 -0.005737 -0.106479 0.049021 0.100822 -0.034575 0.021249 -0.057409 -0.121553 -0.019879 -0.109192 0.121451 -0.115282 0.005255 0.078823 -0.052465 0.020513 0.073406 0.112541 0.074318 -0.037248 0.012046 0.022820 -0.040476 0.091995 -0.073075 
, -0.056724 -0.066897 0.040731 -0.051918 0.067917 -0.030285 0.002160 -0.042043 -0.012996 -0.049374 -0.004862 0.053063 0.030378 0.078404 0.038541 0.074342 -0.054546 -0.029907 0.004279 0.037870 -0.077854 0.039125 0.008984 -0.074886 0.080378 -0.062466 -0.047992 -0.040896 -0.052775 -0.071423 -0.064308 -0.044561 0.046905 0.053657 -0.040251 0.008449 0.071298 -0.025870 0.054447 0.009729 0.044685 0.016558 -0.066000 0.076647 0.066211 0.015183 0.051969 0.080390 -0.071467 -0.057357 -0.027821 0.022318 -0.020571 -0.076833 0.036855 0.059548 0.019550 -0.072558 -0.036776 0.002293 -0.066393 0.031736 0.069370 0.050443 -0.060515 0.039760 -0.045806 -0.072436 0.073324 -0.060807 -0.008434 -0.016805 -0.002365 -0.050216 0.029751 -0.025375 0.005809 0.055706 -0.011545 0.024758 -0.067711 0.045310 0.002213 -0.017900 -0.002887 -0.045358 -0.018701 0.053861 0.036367 -0.017273 0.008297 0.068455 0.008464 0.026079 0.011477 -0.041229 -0.079299 0.029875 0.018831 -0.035209 -0.083925 -0.001386 0.041815 0.057188 -0.051231 -0.060285 0.078430 0.035829 -0.005072 -0.043221 -0.057490 -0.078469 -0.005462 0.010832 0.077447 -0.021618 -0.019252 0.025821 0.046554 -0.031851 0.012850 -0.026233 -0.077465 -0.054258 -0.033653 0.004694 -0.050237 -0.052313 0.079512 0.011806 0.023273 -0.013491 0.071469 0.007053 -0.000080 -0.070054 -0.047451 0.083306 0.045364 0.012501 -0.081659 -0.029638 -0.076944 -0.024513 0.043092 -0.006254 0.050547 -0.027377 -0.057057 0.063600 0.060615 -0.020776 -0.001877 -0.053787 -0.002752 -0.058295 -0.009273 -0.080237 -0.044253 0.077047 0.062612 0.030986 0.022593 0.078434 0.042912 0.018160 -0.002891 -0.045960 0.019180 -0.031199 0.042085 -0.031239 0.043617 0.000831 0.060682 -0.001374 -0.068454 0.032452 0.067162 -0.024332 0.014038 -0.035754 -0.080379 -0.013238 -0.070939 0.077928 -0.076596 0.004851 0.051166 -0.035073 0.014021 0.045071 0.076111 0.049169 -0.021980 0.007847 0.014493 -0.029294 0.059469 -0.046970 
l -0.054003 -0.065738 0.038201 -0.049268 0.065629 -0.031823 -0.001277 -0.041596 -0.016496 -0.048463 -0.007842 0.051825 0.032283 0.074871 0.036166 0.069353 -0.051734 -0.029750 0.004206 0.036556 -0.078038 0.039901 0.007755 -0.071480 0.077098 -0.059619 -0.047582 -0.038706 -0.052589 -0.070848 -0.059948 -0.039787 0.048650 0.051769 -0.036356 0.005345 0.070086 -0.026765 0.055936 0.009354 0.042657 0.015410 -0.061565 0.072479 0.066880 0.015284 0.047589 0.074833 -0.068475 -0.054769 -0.027380 0.018059 -0.017565 -0.070651 0.033724 0.055800 0.017992 -0.068730 -0.035587 0.000252 -0.064471 0.032024 0.066432 0.046630 -0.056674 0.039335 -0.040731 -0.069541 0.068542 -0.061930 -0.005394 -0.013876 0.000025 -0.046721 0.027976 -0.025939 0.006316 0.052941 -0.010730 0.027313 -0.060223 0.038460 0.001457 -0.017216 0.001998 -0.041564 -0.018701 0.053715 0.035598 -0.013779 0.007095 0.061396 0.009857 0.023057 0.011567 -0.037133 -0.073845 0.031434 0.018769 -0.035880 -0.079874 -0.001539 0.040896 0.053548 -0.046828 -0.059555 0.074429 0.031967 -0.002194 -0.042503 -0.056080 -0.074564 -0.004530 0.014624 0.071812 -0.022677 -0.017605 0.028495 0.041490 -0.032264 0.015754 -0.027206 -0.076549 -0.052635 -0.034148 0.002280 -0.047775 -0.052245 0.075674 0.012243 0.025541 -0.012700 0.068382 0.008025 0.004026 -0.069638 -0.042749 0.076583 0.042674 0.008449 -0.077127 -0.027798 -0.073478 -0.019150 0.037980 -0.005001 0.049149 -0.024044 -0.051398 0.056818 0.060240 -0.020481 -0.004195 -0.049169 -0.000479 -0.055008 -0.006259 -0.076158 -0.041794 0.073255 0.060095 0.032421 0.019081 0.075404 0.041643 0.018136 -0.003411 -0.042711 0.019081 -0.027488 0.040281 -0.029127 0.043741 -0.002045 0.055461 -0.002658 -0.063470 0.031193 0.064742 -0.021546 0.013287 -0.037935 -0.076722 -0.012646 -0.071575 0.074458 -0.070894 0.000658 0.046582 -0.033124 0.012835 0.046614 0.070465 0.048619 -0.021212 0.010010 0.016527 -0.027066 0.059627 -0.045761 
o -0.062671 -0.074532 0.042023 -0.059210 0.073618 -0.036607 -0.000931 -0.048977 -0.018677 -0.053014 -0.006103 0.060891 0.036758 0.090146 0.043139 0.081350 -0.058801 -0.033125 0.005405 0.043724 -0.088964 0.045002 0.007878 -0.083938 0.091804 -0.069376 -0.052622 -0.049519 -0.061327 -0.083520 -0.071741 -0.048525 0.052944 0.064476 -0.042648 0.005544 0.080334 -0.031940 0.063498 0.013909 0.051471 0.022204 -0.073059 0.086430 0.077138 0.013666 0.057802 0.086576 -0.080174 -0.067100 -0.029686 0.025765 -0.023715 -0.082836 0.040741 0.063536 0.025003 -0.083553 -0.045539 0.001048 -0.076867 0.035453 0.079124 0.055405 -0.066842 0.044015 -0.047627 -0.083405 0.082503 -0.071319 -0.009137 -0.018099 -0.004248 -0.056058 0.031567 -0.030422 0.004448 0.063462 -0.013070 0.029777 -0.071491 0.047323 0.004923 -0.019807 -0.002398 -0.049580 -0.023943 0.062657 0.042061 -0.019365 0.010785 0.075962 0.010550 0.028023 0.013754 -0.046443 -0.085952 0.037299 0.020548 -0.038643 -0.091836 -0.006143 0.043216 0.063161 -0.056180 -0.070640 0.084960 0.039372 -0.003547 -0.053099 -0.067981 -0.084833 -0.007573 0.016149 0.084919 -0.023331 -0.022849 0.029757 0.050883 -0.034611 0.017475 -0.028265 -0.087646 -0.059223 -0.038997 0.003243 -0.059138 -0.063206 0.087196 0.015115 0.027966 -0.015102 0.081707 0.008020 0.003577 -0.081448 -0.048725 0.091951 0.050745 0.014175 -0.088556 -0.029182 -0.086143 -0.024877 0.044245 -0.006209 0.059498 -0.027853 -0.064037 0.068702 0.068486 -0.025536 -0.002924 -0.055568 -0.003666 -0.064952 -0.005867 -0.087925 -0.050214 0.084995 0.070341 0.034132 0.024721 0.091536 0.052053 0.018934 -0.000131 -0.051465 0.021892 -0.032227 0.047472 -0.039194 0.048669 -0.000421 0.068520 -0.002574 -0.079199 0.033494 0.077885 -0.026121 0.013926 -0.044040 -0.090141 -0.014338 -0.080415 0.089028 -0.085097 0.003061 0.057758 -0.035828 0.015593 0.052760 0.082740 0.055664 -0.026534 0.011806 0.014948 -0.028648 0.070605 -0.052557 
a -0.055808 -0.064585 0.038274 -0.047310 0.061996 -0.030669 0.001490 -0.041284 -0.015583 -0.048923 -0.006911 0.049892 0.032232 0.074881 0.033401 0.068746 -0.049727 -0.030901 0.004723 0.036132 -0.076335 0.038521 0.009267 -0.071904 0.078142 -0.057308 -0.046302 -0.041610 -0.050727 -0.070434 -0.060603 -0.040624 0.048226 0.051714 -0.038694 0.008707 0.070829 -0.024248 0.052733 0.010829 0.043166 0.015971 -0.062645 0.075031 0.067492 0.014517 0.049196 0.075589 -0.067884 -0.059146 -0.028221 0.020977 -0.020907 -0.071611 0.035397 0.057463 0.021195 -0.073975 -0.040080 0.000788 -0.065137 0.034535 0.066549 0.046285 -0.058462 0.038464 -0.044784 -0.070156 0.070557 -0.062230 -0.008252 -0.013628 -0.001959 -0.045801 0.027751 -0.025964 0.005231 0.057386 -0.012835 0.023878 -0.060521 0.040953 0.003726 -0.017932 -0.001236 -0.042905 -0.020296 0.056287 0.037047 -0.014600 0.006919 0.066414 0.008967 0.024835 0.012521 -0.041621 -0.075705 0.031646 0.018315 -0.035660 -0.080331 -0.004918 0.038311 0.052391 -0.049074 -0.057732 0.073268 0.033783 -0.001900 -0.041997 -0.059092 -0.073707 -0.006353 0.012711 0.072284 -0.020207 -0.017924 0.029042 0.044539 -0.033155 0.011728 -0.028108 -0.078782 -0.053426 -0.032946 0.002805 -0.047118 -0.051586 0.074123 0.012223 0.026248 -0.010724 0.069290 0.006840 0.003709 -0.069013 -0.041241 0.078656 0.042149 0.011590 -0.076425 -0.024322 -0.074951 -0.020638 0.040003 -0.003916 0.052521 -0.023418 -0.054045 0.059216 0.060979 -0.022070 -0.002766 -0.049394 0.000665 -0.055342 -0.006553 -0.073351 -0.041715 0.069540 0.061296 0.028424 0.021158 0.079032 0.043360 0.015283 -0.000994 -0.041180 0.015540 -0.026469 0.039926 -0.032875 0.042921 0.002019 0.058879 -0.002688 -0.065865 0.027185 0.064716 -0.024498 0.013878 -0.033980 -0.075322 -0.014956 -0.071903 0.076240 -0.073318 0.001194 0.045721 -0.030130 0.011325 0.045555 0.073420 0.047875 -0.022960 0.010273 0.015093 -0.026178 0.056331 -0.044318 
p -0.045278 -0.051752 0.032976 -0.040910 0.053524 -0.025471 -0.001495 -0.035741 -0.011468 -0.040337 -0.005408 0.042089 0.026603 0.060727 0.026980 0.055046 -0.039909 -0.025611 0.003320 0.030592 -0.063492 0.034874 0.005608 -0.060742 0.063556 -0.046265 -0.035877 -0.034326 -0.045735 -0.055013 -0.049982 -0.032245 0.040481 0.044266 -0.033762 0.005880 0.059597 -0.019456 0.044481 0.007238 0.034187 0.015093 -0.049861 0.061234 0.052994 0.012984 0.041954 0.062148 -0.054779 -0.046584 -0.019102 0.015893 -0.016638 -0.058225 0.027632 0.045701 0.016768 -0.057813 -0.029437 0.002795 -0.054313 0.027563 0.057935 0.038294 -0.046391 0.030199 -0.036800 -0.060264 0.058054 -0.050437 -0.006181 -0.011232 -0.000110 -0.038135 0.022721 -0.022994 0.002196 0.045737 -0.011433 0.021901 -0.051288 0.035825 0.003227 -0.014361 0.001954 -0.035665 -0.013504 0.042748 0.029610 -0.013499 0.007737 0.050828 0.005966 0.019868 0.010078 -0.029843 -0.062284 0.022708 0.013591 -0.027275 -0.065289 -0.003512 0.033499 0.044512 -0.040475 -0.047703 0.059323 0.029161 -0.001264 -0.035605 -0.046205 -0.060055 -0.005144 0.009926 0.057584 -0.016987 -0.017573 0.023898 0.035309 -0.026203 0.009365 -0.019904 -0.064145 -0.044434 -0.029207 0.000221 -0.041846 -0.042963 0.059749 0.009763 0.017618 -0.008876 0.056124 0.004820 0.002258 -0.058142 -0.033699 0.062704 0.034995 0.006851 -0.064790 -0.021928 -0.057575 -0.017039 0.031628 -0.005418 0.041403 -0.019036 -0.046142 0.046118 0.049848 -0.015329 -0.003725 -0.040522 0.000577 -0.043399 -0.007547 -0.060600 -0.036216 0.060722 0.046750 0.024334 0.018073 0.061518 0.035112 0.015524 -0.001402 -0.034780 0.013314 -0.023759 0.034237 -0.028504 0.035216 0.000202 0.045407 -0.004047 -0.054674 0.024681 0.055968 -0.019998 0.011699 -0.028644 -0.063804 -0.012441 -0.058959 0.060600 -0.058257 0.004084 0.040091 -0.027302 0.011833 0.038072 0.060547 0.037707 -0.019234 0.008871 0.011980 -0.022269 0.048211 -0.037339 
z -0.066576 -0.077401 0.045210 -0.062729 0.080859 -0.038883 -0.001675 -0.050199 -0.019816 -0.059676 -0.007997 0.063887 0.037029 0.095410 0.044935 0.084968 -0.061309 -0.035837 0.004932 0.047188 -0.093476 0.050701 0.010410 -0.089032 0.092834 -0.073919 -0.057844 -0.049169 -0.064461 -0.083449 -0.077234 -0.052025 0.055885 0.068429 -0.047113 0.007323 0.086953 -0.029785 0.067132 0.013209 0.053408 0.018540 -0.076581 0.094518 0.082555 0.015822 0.059254 0.092714 -0.083008 -0.069261 -0.032298 0.025190 -0.021505 -0.086339 0.044238 0.065959 0.025494 -0.088158 -0.048501 0.000328 -0.080183 0.037494 0.085136 0.056347 -0.071229 0.047015 -0.050505 -0.087360 0.084675 -0.072436 -0.010858 -0.018124 -0.003151 -0.059114 0.033698 -0.030585 0.006295 0.069403 -0.013744 0.033798 -0.078659 0.052429 0.003073 -0.020408 -0.001131 -0.052518 -0.023127 0.065050 0.044793 -0.018840 0.009610 0.079498 0.008825 0.033498 0.014955 -0.046043 -0.089573 0.035533 0.020984 -0.040480 -0.095474 -0.003335 0.048296 0.067029 -0.059855 -0.071455 0.091612 0.042256 -0.005427 -0.050864 -0.069119 -0.092314 -0.005718 0.015486 0.088727 -0.025639 -0.024103 0.034696 0.055254 -0.037627 0.018755 -0.032859 -0.094855 -0.063771 -0.042147 0.001644 -0.060414 -0.062603 0.090911 0.017968 0.029966 -0.014114 0.085807 0.009140 0.001209 -0.083673 -0.054204 0.096819 0.054884 0.014065 -0.094142 -0.030993 -0.089986 -0.028431 0.050951 -0.006380 0.060358 -0.028611 -0.067693 0.072299 0.075631 -0.024939 -0.005021 -0.061418 -0.001605 -0.066996 -0.008123 -0.092129 -0.048592 0.087410 0.072667 0.035746 0.026811 0.092052 0.053331 0.018981 -0.003403 -0.052923 0.022229 -0.034743 0.047684 -0.038697 0.051433 0.001999 0.070733 -0.003682 -0.082959 0.036242 0.079666 -0.026074 0.016697 -0.044793 -0.092573 -0.016077 -0.086388 0.094810 -0.085691 0.004175 0.058579 -0.037857 0.011814 0.055837 0.090599 0.058765 -0.025405 0.008618 0.018783 -0.034224 0.070576 -0.055721 
c -0.048589 -0.052368 0.031265 -0.043628 0.054593 -0.027447 -0.000771 -0.032845 -0.011564 -0.040008 -0.003938 0.045397 0.028392 0.061497 0.030268 0.061172 -0.041137 -0.022555 0.001861 0.028972 -0.067048 0.034836 0.005435 -0.058395 0.062757 -0.047884 -0.035977 -0.032918 -0.043122 -0.059669 -0.049864 -0.033729 0.039583 0.043641 -0.034510 0.007516 0.059812 -0.023254 0.045969 0.007732 0.034920 0.016670 -0.052549 0.062505 0.055507 0.009252 0.039605 0.063378 -0.055754 -0.046618 -0.021514 0.016363 -0.015788 -0.062640 0.028775 0.045077 0.014890 -0.059606 -0.029139 -0.000730 -0.052835 0.025159 0.057460 0.042020 -0.049224 0.030777 -0.037403 -0.059665 0.056092 -0.048339 -0.004344 -0.011942 0.000897 -0.042166 0.023490 -0.021735 0.006580 0.043921 -0.007864 0.023356 -0.052444 0.033270 0.000801 -0.013022 -0.001997 -0.034596 -0.013411 0.045660 0.027569 -0.013156 0.005933 0.051631 0.005559 0.022929 0.009219 -0.032399 -0.060076 0.023956 0.014017 -0.027292 -0.064288 -0.001652 0.034665 0.043397 -0.040260 -0.051305 0.063308 0.029145 -0.004757 -0.036930 -0.049269 -0.063960 -0.004472 0.008888 0.061560 -0.016462 -0.017620 0.020157 0.038510 -0.024575 0.010114 -0.021001 -0.065210 -0.044346 -0.029693 0.000191 -0.039450 -0.043426 0.060584 0.013657 0.018143 -0.011613 0.058036 0.008684 -0.000008 -0.056849 -0.037223 0.065035 0.037159 0.010120 -0.062846 -0.022435 -0.060250 -0.016491 0.031530 -0.000637 0.041534 -0.021759 -0.045125 0.048625 0.051998 -0.016813 -0.004267 -0.042136 0.000932 -0.046636 -0.007726 -0.064559 -0.032676 0.057871 0.048552 0.023220 0.017756 0.062566 0.034385 0.012211 -0.003403 -0.036823 0.016554 -0.023175 0.034297 -0.024726 0.033641 0.001043 0.048443 -0.002615 -0.056194 0.023657 0.056210 -0.018628 0.010490 -0.031074 -0.066582 -0.011165 -0.059841 0.063561 -0.059234 0.001603 0.041987 -0.024842 0.010690 0.037254 0.060095 0.041828 -0.021196 0.007053 0.011549 -0.019979 0.047816 -0.037584 
' -0.065753 -0.074872 0.044619 -0.054877 0.075195 -0.037207 -0.001917 -0.047049 -0.016285 -0.055108 -0.006439 0.059369 0.037864 0.087495 0.039197 0.079456 -0.057438 -0.031899 0.004883 0.042988 -0.090540 0.045921 0.006388 -0.081458 0.091048 -0.066579 -0.054883 -0.045659 -0.060697 -0.082336 -0.071037 -0.048953 0.051476 0.060440 -0.042879 0.008142 0.082218 -0.028564 0.059906 0.012963 0.050425 0.018701 -0.073036 0.086026 0.075018 0.013827 0.055509 0.088126 -0.077311 -0.064375 -0.030342 0.023820 -0.022858 -0.080670 0.041890 0.065488 0.022988 -0.080436 -0.042611 0.002716 -0.074147 0.036466 0.078468 0.056253 -0.067933 0.043486 -0.047371 -0.083934 0.082634 -0.067569 -0.006400 -0.015793 0.000451 -0.057403 0.033445 -0.031123 0.005923 0.065409 -0.015330 0.030251 -0.070437 0.048519 0.001966 -0.018255 0.001996 -0.048594 -0.019524 0.063968 0.041604 -0.017141 0.008859 0.074186 0.009262 0.028129 0.016869 -0.042614 -0.085386 0.035986 0.021093 -0.037427 -0.089223 -0.002901 0.044050 0.058583 -0.055291 -0.065541 0.082394 0.041100 -0.004146 -0.048615 -0.067317 -0.085330 -0.009662 0.015491 0.083614 -0.023958 -0.024711 0.033314 0.051915 -0.036393 0.013819 -0.030433 -0.087675 -0.060007 -0.041606 0.002130 -0.056741 -0.060793 0.083667 0.014401 0.027163 -0.015374 0.078776 0.009293 0.002688 -0.081489 -0.049667 0.089787 0.050415 0.012645 -0.090663 -0.033163 -0.084017 -0.026981 0.047187 -0.004292 0.058519 -0.028718 -0.061647 0.066902 0.067687 -0.024271 -0.005827 -0.057714 -0.000275 -0.063096 -0.005879 -0.085960 -0.048654 0.084380 0.070824 0.033924 0.026912 0.087358 0.050385 0.020295 -0.003363 -0.050974 0.020264 -0.032098 0.045884 -0.035888 0.049320 0.000707 0.065537 -0.003901 -0.078678 0.034129 0.072207 -0.023500 0.013638 -0.039386 -0.090679 -0.015733 -0.082319 0.089848 -0.084258 0.000766 0.053842 -0.035746 0.013494 0.054353 0.083767 0.056055 -0.027850 0.012175 0.015152 -0.030934 0.069134 -0.053451 
h -0.044211 -0.053741 0.030113 -0.042021 0.052800 -0.024386 -0.000057 -0.030854 -0.010261 -0.039442 -0.005584 0.042786 0.027126 0.061197 0.026955 0.058000 -0.040024 -0.023084 0.002637 0.028604 -0.061007 0.029781 0.004187 -0.057149 0.060425 -0.047449 -0.038762 -0.032939 -0.044613 -0.057890 -0.050652 -0.033900 0.036730 0.041167 -0.030386 0.006606 0.057586 -0.018125 0.043482 0.009676 0.034659 0.015642 -0.049138 0.061124 0.054314 0.010423 0.039892 0.062888 -0.054474 -0.043996 -0.021845 0.017693 -0.015705 -0.059357 0.026665 0.042877 0.018293 -0.057854 -0.029831 0.001837 -0.049518 0.027096 0.053840 0.037783 -0.047678 0.032648 -0.035572 -0.059016 0.054569 -0.046002 -0.007959 -0.014575 0.001093 -0.038608 0.022491 -0.021241 0.006121 0.046421 -0.012027 0.019081 -0.048086 0.034766 0.002258 -0.015396 -0.002211 -0.033853 -0.016055 0.043550 0.026859 -0.011527 0.005722 0.051032 0.008522 0.019855 0.009241 -0.032019 -0.060788 0.024308 0.013553 -0.026239 -0.064928 -0.003204 0.033275 0.041493 -0.036773 -0.048624 0.059740 0.025684 -0.002949 -0.036425 -0.046493 -0.059343 -0.005322 0.007826 0.056867 -0.015667 -0.015453 0.020474 0.036629 -0.024264 0.009929 -0.022422 -0.059665 -0.040863 -0.029865 0.003865 -0.038232 -0.040908 0.058201 0.008969 0.017307 -0.009918 0.054269 0.005914 -0.000359 -0.053991 -0.036465 0.062461 0.033121 0.011305 -0.061919 -0.022583 -0.058091 -0.016627 0.030678 -0.002308 0.038776 -0.017213 -0.041535 0.047891 0.048665 -0.018752 -0.001239 -0.040828 0.000795 -0.042331 -0.003678 -0.058108 -0.032011 0.059712 0.048439 0.023905 0.015794 0.062838 0.035119 0.015378 -0.003049 -0.036381 0.015026 -0.023219 0.032230 -0.027516 0.032726 0.000910 0.049023 -0.002448 -0.051868 0.023532 0.053957 -0.018858 0.010302 -0.030054 -0.062120 -0.009388 -0.056966 0.062614 -0.055348 0.001713 0.037245 -0.024180 0.011114 0.036441 0.056434 0.038374 -0.020226 0.008206 0.011178 -0.020023 0.048351 -0.034944 
n -0.039575 -0.045775 0.026267 -0.036394 0.049516 -0.021015 -0.002051 -0.029853 -0.011980 -0.032840 -0.002616 0.039751 0.023132 0.052603 0.023736 0.049447 -0.039189 -0.020044 0.004353 0.026952 -0.055337 0.029742 0.005694 -0.051399 0.055614 -0.044112 -0.033404 -0.030747 -0.038832 -0.050800 -0.045213 -0.032388 0.033035 0.040292 -0.026436 0.004811 0.049022 -0.016262 0.039877 0.008985 0.033567 0.011474 -0.045013 0.053885 0.048091 0.007823 0.037386 0.054196 -0.049534 -0.041929 -0.019844 0.016767 -0.013478 -0.050192 0.027533 0.038690 0.014360 -0.051320 -0.029229 -0.000508 -0.046389 0.021950 0.051638 0.035968 -0.043720 0.026347 -0.031548 -0.054885 0.051636 -0.042366 -0.005763 -0.010353 -0.000045 -0.036480 0.018734 -0.017613 0.006406 0.039998 -0.010298 0.017055 -0.045269 0.029689 0.002404 -0.012739 -0.002562 -0.033248 -0.012960 0.037276 0.025337 -0.013641 0.007065 0.046795 0.005160 0.019833 0.011483 -0.028151 -0.054375 0.021460 0.013426 -0.022118 -0.056616 -0.003076 0.029758 0.036231 -0.034411 -0.044280 0.054419 0.026548 -0.003551 -0.029676 -0.041046 -0.053259 -0.005151 0.010179 0.054211 -0.012858 -0.012328 0.020809 0.033137 -0.021225 0.011127 -0.017733 -0.057058 -0.038071 -0.024182 -0.000191 -0.035442 -0.035884 0.055606 0.007537 0.016944 -0.006913 0.051160 0.008036 -0.000315 -0.051680 -0.029356 0.058035 0.032588 0.009346 -0.054775 -0.017014 -0.050964 -0.015625 0.030934 -0.000501 0.035359 -0.019625 -0.040393 0.044779 0.041379 -0.014958 -0.003333 -0.035548 0.001107 -0.038797 -0.007490 -0.055017 -0.030018 0.053246 0.045410 0.022921 0.013830 0.055230 0.029713 0.013622 -0.002759 -0.029457 0.015331 -0.018074 0.031095 -0.021634 0.030598 -0.002437 0.044675 0.000196 -0.049141 0.023632 0.049146 -0.014343 0.008702 -0.025163 -0.055776 -0.006955 -0.049554 0.053737 -0.053983 0.001398 0.036002 -0.022049 0.007494 0.032190 0.051814 0.032882 -0.018215 0.007720 0.010040 -0.020968 0.041486 -0.032461 
i -0.055215 -0.062242 0.034787 -0.048142 0.063558 -0.031822 0.001411 -0.041202 -0.014124 -0.045018 -0.005848 0.050568 0.028205 0.069760 0.033333 0.066752 -0.047976 -0.028739 0.005531 0.035051 -0.074287 0.038521 0.008746 -0.069296 0.074497 -0.055559 -0.042269 -0.039844 -0.050376 -0.068411 -0.059798 -0.039801 0.044778 0.052593 -0.037568 0.006237 0.065982 -0.024407 0.052335 0.011788 0.039773 0.018670 -0.060450 0.069741 0.064988 0.013765 0.046259 0.070538 -0.063695 -0.054981 -0.022956 0.018482 -0.016231 -0.068842 0.031098 0.054508 0.020400 -0.069961 -0.037798 0.003032 -0.062094 0.030313 0.063552 0.047331 -0.053806 0.037200 -0.040267 -0.068930 0.067007 -0.056123 -0.006398 -0.015131 -0.002399 -0.045770 0.023847 -0.023865 0.005403 0.051475 -0.012986 0.022124 -0.059623 0.040450 0.001322 -0.017617 0.001985 -0.039354 -0.015577 0.052941 0.035274 -0.013148 0.010193 0.060981 0.006818 0.026503 0.013987 -0.036055 -0.073535 0.030750 0.017676 -0.033254 -0.074914 -0.002940 0.036423 0.049379 -0.049310 -0.055027 0.070296 0.030932 -0.002664 -0.042353 -0.054923 -0.070164 -0.006452 0.010481 0.070389 -0.018948 -0.019351 0.023703 0.040429 -0.031909 0.011924 -0.025996 -0.072810 -0.049810 -0.034529 0.001561 -0.046554 -0.050989 0.072737 0.013518 0.021071 -0.008810 0.063875 0.006996 0.002632 -0.068234 -0.043243 0.076346 0.038829 0.010941 -0.074054 -0.023606 -0.069668 -0.022243 0.038221 -0.004303 0.050194 -0.024905 -0.049402 0.058669 0.057450 -0.018234 -0.005286 -0.047452 -0.003931 -0.051584 -0.006230 -0.072953 -0.040441 0.069623 0.059752 0.028767 0.020470 0.073393 0.043015 0.016114 0.001385 -0.043559 0.018229 -0.029016 0.038953 -0.028317 0.042864 0.001305 0.057186 -0.003706 -0.065323 0.026149 0.059631 -0.018949 0.012857 -0.033584 -0.072828 -0.013440 -0.066277 0.074220 -0.067122 0.003405 0.048066 -0.031851 0.011435 0.043974 0.068827 0.045046 -0.022850 0.006843 0.013106 -0.024965 0.054793 -0.043500 
